digraph Tree {
node [shape=box] ;
0 [label="X[5] <= 6.941\nfriedman_mse = 87.4922\nsamples = 455\nvalue = -0.0"] ;
1 [label="X[12] <= 14.395\nfriedman_mse = 41.5314\nsamples = 384\nvalue = -2.7086"] ;
0 -> 1 [labeldistance=2.5, labelangle=45, headlabel="True"] ;
2 [label="X[7] <= 1.4337\nfriedman_mse = 27.0786\nsamples = 228\nvalue = 0.7196"] ;
1 -> 2 ;
3 [label="X[11] <= 339.985\nfriedman_mse = 78.1456\nsamples = 5\nvalue = 22.9365"] ;
2 -> 3 ;
4 [label="friedman_mse = 0.0\nsamples = 1\nvalue = 5.2565"] ;
3 -> 4 ;
5 [label="friedman_mse = 0.0\nsamples = 4\nvalue = 27.3565"] ;
3 -> 5 ;
6 [label="X[5] <= 6.543\nfriedman_mse = 14.6185\nsamples = 223\nvalue = 0.2215"] ;
2 -> 6 ;
7 [label="friedman_mse = 8.1732\nsamples = 176\nvalue = -1.0026"] ;
6 -> 7 ;
8 [label="friedman_mse = 12.1306\nsamples = 47\nvalue = 4.8054"] ;
6 -> 8 ;
9 [label="X[4] <= 0.607\nfriedman_mse = 20.3718\nsamples = 156\nvalue = -7.7192"] ;
1 -> 9 ;
10 [label="X[0] <= 0.5538\nfriedman_mse = 13.0151\nsamples = 61\nvalue = -4.3468"] ;
9 -> 10 ;
11 [label="friedman_mse = 6.7575\nsamples = 37\nvalue = -2.7354"] ;
10 -> 11 ;
12 [label="friedman_mse = 12.4878\nsamples = 24\nvalue = -6.831"] ;
10 -> 12 ;
13 [label="X[12] <= 19.72\nfriedman_mse = 13.1041\nsamples = 95\nvalue = -9.8846"] ;
9 -> 13 ;
14 [label="friedman_mse = 6.1305\nsamples = 45\nvalue = -7.3724"] ;
13 -> 14 ;
15 [label="friedman_mse = 8.5886\nsamples = 50\nvalue = -12.1455"] ;
13 -> 15 ;
16 [label="X[5] <= 7.437\nfriedman_mse = 81.7829\nsamples = 71\nvalue = 14.6494"] ;
0 -> 16 [labeldistance=2.5, labelangle=-45, headlabel="False"] ;
17 [label="X[0] <= 7.3934\nfriedman_mse = 41.6549\nsamples = 43\nvalue = 9.4518"] ;
16 -> 17 ;
18 [label="X[7] <= 1.9037\nfriedman_mse = 18.8352\nsamples = 40\nvalue = 10.779"] ;
17 -> 18 ;
19 [label="friedman_mse = 18.9225\nsamples = 2\nvalue = 23.0065"] ;
18 -> 19 ;
20 [label="friedman_mse = 10.5475\nsamples = 38\nvalue = 10.1354"] ;
18 -> 20 ;
21 [label="X[6] <= 94.9\nfriedman_mse = 9.3067\nsamples = 3\nvalue = -8.2435"] ;
17 -> 21 ;
22 [label="friedman_mse = 0.0\nsamples = 1\nvalue = -12.2435"] ;
21 -> 22 ;
23 [label="friedman_mse = 1.96\nsamples = 2\nvalue = -6.2435"] ;
21 -> 23 ;
24 [label="X[0] <= 2.7422\nfriedman_mse = 38.2076\nsamples = 28\nvalue = 22.6315"] ;
16 -> 24 ;
25 [label="X[10] <= 17.9\nfriedman_mse = 18.6365\nsamples = 27\nvalue = 23.4972"] ;
24 -> 25 ;
26 [label="friedman_mse = 12.4481\nsamples = 23\nvalue = 24.5434"] ;
25 -> 26 ;
27 [label="friedman_mse = 11.7369\nsamples = 4\nvalue = 17.4815"] ;
25 -> 27 ;
28 [label="friedman_mse = 0.0\nsamples = 1\nvalue = -0.7435"] ;
24 -> 28 ;
}